SVM-light Version V6.02
0 # kernel type
3 # kernel parameter -d 
1 # kernel parameter -g 
1 # kernel parameter -s 
1 # kernel parameter -r 
empty# kernel parameter -u 
827 # highest feature index 
400 # number of training documents 
301 # number of support vectors plus 1 
0.72174137 # threshold b, each following line is a SV (starting with alpha*y)
-0.025115233751864855793467512512507 24:1 32:1 48:1 54:1 60:1 98:1 169:1 199:1 271:1 334:1 338:1 342:1 349:1 372:1 388:1 423:1 440:1 451:1 467:1 492:1 503:1 531:1 534:1 548:1 550:1 557:1 650:1 707:1 708:1 748:1 812:1 #
-0.0066121315507602744510062819927043 24:1 44:1 110:1 160:1 163:1 178:1 271:1 319:1 322:1 327:1 362:1 424:1 524:1 550:1 559:1 682:1 717:1 760:1 805:1 812:1 #
-0.043190162953936364620410870429623 55:1 126:1 133:1 173:1 199:1 400:1 480:1 649:1 683:1 812:1 #
-0.053979463669658174496124303232136 55:1 57:1 122:1 132:1 144:1 173:1 279:1 281:1 327:1 338:1 342:1 493:1 524:1 550:1 600:1 618:1 761:1 812:1 816:1 #
-0.024838293805732811203590415516373 32:1 79:1 98:1 118:1 141:1 146:1 173:1 178:1 204:1 212:1 258:1 269:1 291:1 327:1 362:1 363:1 411:1 420:1 448:1 524:1 550:1 569:1 645:1 655:1 719:1 757:1 805:1 812:1 814:1 #
0.053979463669658174496124303232136 32:1 137:1 178:1 359:1 404:1 426:1 549:1 587:1 650:1 702:1 758:1 812:1 #
0.053979463669658174496124303232136 15:1 80:1 102:1 178:1 220:1 267:1 282:1 327:1 341:1 351:1 369:1 467:1 469:1 484:1 499:1 648:1 812:1 #
0.053979463669658174496124303232136 137:1 404:1 426:1 697:1 718:1 #
0.053979463669658174496124303232136 3:1 24:1 32:1 103:1 129:1 149:1 173:1 178:1 180:1 205:1 230:1 269:1 291:1 338:1 342:1 400:1 421:1 426:1 467:1 469:1 483:1 487:1 493:1 550:1 555:1 573:1 577:1 612:1 650:1 691:1 702:1 731:1 757:1 761:1 812:1 #
0.053979463669658174496124303232136 32:1 178:1 199:1 296:1 316:1 320:1 327:1 338:1 345:1 442:1 550:1 573:1 769:1 795:1 812:1 825:1 #
-0.053979463669658174496124303232136 24:1 137:1 178:1 297:1 404:1 426:1 524:1 718:1 #
-0.053979463669658174496124303232136 32:1 102:1 137:1 317:1 338:1 404:1 426:1 442:1 524:1 550:1 803:1 #
-0.053979463669658174496124303232136 32:1 43:1 178:1 279:1 338:1 359:1 426:1 443:1 500:1 524:1 573:1 706:1 772:1 779:1 812:1 #
-0.053979463669658174496124303232136 24:1 32:1 34:1 43:1 137:1 173:1 178:1 212:1 246:1 346:1 404:1 426:1 444:1 465:1 469:1 550:1 604:1 655:1 702:1 761:1 772:1 788:1 812:1 816:1 #
-0.053979463669658174496124303232136 32:1 178:1 255:1 342:1 409:1 426:1 432:1 511:1 577:1 592:1 616:1 760:1 812:1 #
0.053226989274394669038326100007907 23:1 32:1 55:1 98:1 203:1 309:1 370:1 538:1 550:1 578:1 579:1 653:1 665:1 707:1 708:1 729:1 759:1 783:1 805:1 807:1 812:1 #
0.053979463669658174496124303232136 17:1 23:1 32:1 84:1 146:1 160:1 189:1 199:1 225:1 240:1 244:1 314:1 342:1 372:1 373:1 467:1 480:1 485:1 524:1 550:1 551:1 584:1 596:1 601:1 637:1 711:1 712:1 807:1 816:1 #
0.053979463669658174496124303232136 55:1 98:1 129:1 148:1 173:1 178:1 479:1 550:1 707:1 708:1 748:1 757:1 805:1 812:1 #
0.053979463669658174496124303232136 21:1 98:1 157:1 160:1 198:1 325:1 329:1 403:1 465:1 479:1 524:1 548:1 631:1 634:1 707:1 708:1 805:1 812:1 #
0.053979463669658174496124303232136 17:1 24:1 32:1 98:1 141:1 161:1 173:1 177:1 182:1 183:1 199:1 209:1 212:1 279:1 305:1 316:1 381:1 400:1 524:1 550:1 552:1 569:1 579:1 641:1 650:1 682:1 716:1 742:1 757:1 761:1 803:1 812:1 #
-0.053979463669658174496124303232136 32:1 63:1 86:1 98:1 104:1 167:1 173:1 199:1 203:1 212:1 259:1 316:1 338:1 363:1 367:1 381:1 387:1 390:1 400:1 455:1 460:1 462:1 467:1 482:1 487:1 524:1 546:1 550:1 552:1 569:1 617:1 618:1 641:1 644:1 682:1 702:1 713:1 731:1 739:1 758:1 762:1 803:1 805:1 812:1 817:1 818:1 820:1 #
-0.053979463669658174496124303232136 3:1 24:1 32:1 80:1 87:1 98:1 157:1 167:1 177:1 178:1 199:1 203:1 244:1 259:1 289:1 322:1 327:1 338:1 426:1 438:1 467:1 469:1 547:1 550:1 569:1 584:1 640:1 669:1 747:1 803:1 805:1 808:1 811:1 812:1 826:1 #
-0.047013416925874650098560181277207 19:1 55:1 68:1 176:1 178:1 199:1 216:1 244:1 286:1 312:1 316:1 327:1 345:1 372:1 400:1 426:1 428:1 467:1 487:1 539:1 550:1 552:1 575:1 655:1 664:1 736:1 757:1 758:1 799:1 812:1 817:1 818:1 #
-0.052088712139872407613783167334987 55:1 63:1 126:1 160:1 173:1 178:1 199:1 256:1 327:1 475:1 479:1 550:1 569:1 716:1 805:1 812:1 #
-0.053979463669658174496124303232136 32:1 140:1 148:1 199:1 308:1 317:1 447:1 467:1 483:1 664:1 707:1 708:1 723:1 805:1 812:1 814:1 826:1 #
0.053979463669658174496124303232136 137:1 173:1 178:1 201:1 269:1 296:1 316:1 404:1 426:1 550:1 616:1 709:1 812:1 #
0.053979463669658174496124303232136 32:1 52:1 137:1 178:1 338:1 361:1 404:1 426:1 470:1 477:1 480:1 518:1 524:1 547:1 577:1 761:1 790:1 #
0.053979463669658174496124303232136 24:1 32:1 178:1 426:1 520:1 521:1 524:1 616:1 #
-0.019106712243451770549818036215584 118:1 151:1 173:1 238:1 330:1 400:1 424:1 426:1 487:1 504:1 524:1 559:1 577:1 711:1 712:1 772:1 798:1 809:1 810:1 #
0.053979463669658174496124303232136 32:1 309:1 487:1 553:1 653:1 702:1 718:1 758:1 805:1 812:1 #
-0.053979463669658174496124303232136 24:1 32:1 142:1 178:1 181:1 209:1 242:1 278:1 292:1 316:1 331:1 338:1 400:1 426:1 440:1 453:1 470:1 473:1 487:1 498:1 514:1 524:1 548:1 550:1 561:1 574:1 600:1 650:1 690:1 694:1 739:1 746:1 757:1 758:1 791:1 807:1 812:1 #
-0.053979463669658174496124303232136 84:1 98:1 137:1 173:1 373:1 404:1 426:1 501:1 539:1 681:1 682:1 707:1 708:1 744:1 758:1 803:1 805:1 #
-0.053979463669658174496124303232136 32:1 82:1 98:1 130:1 151:1 160:1 279:1 319:1 366:1 524:1 554:1 575:1 720:1 743:1 805:1 #
-0.053979463669658174496124303232136 32:1 58:1 203:1 347:1 372:1 451:1 453:1 520:1 524:1 573:1 578:1 639:1 650:1 662:1 698:1 741:1 812:1 #
-0.049446287548390956134714002701003 15:1 32:1 147:1 173:1 178:1 182:1 195:1 227:1 281:1 287:1 291:1 292:1 301:1 352:1 372:1 404:1 408:1 426:1 442:1 472:1 480:1 519:1 524:1 548:1 550:1 578:1 641:1 673:1 682:1 769:1 772:1 803:1 812:1 #
0.053979463669658174496124303232136 24:1 26:1 32:1 47:1 55:1 102:1 173:1 176:1 178:1 265:1 280:1 312:1 317:1 327:1 333:1 363:1 372:1 428:1 524:1 550:1 569:1 573:1 590:1 593:1 594:1 709:1 736:1 761:1 769:1 782:1 803:1 812:1 #
0.053979463669658174496124303232136 7:1 24:1 55:1 56:1 61:1 82:1 89:1 192:1 193:1 199:1 222:1 226:1 306:1 321:1 338:1 409:1 426:1 467:1 487:1 505:1 524:1 547:1 550:1 578:1 586:1 669:1 675:1 688:1 736:1 750:1 751:1 758:1 775:1 805:1 #
0.026391614069787266982913820356771 24:1 32:1 34:1 43:1 45:1 55:1 126:1 173:1 178:1 190:1 193:1 199:1 220:1 257:1 269:1 282:1 316:1 327:1 371:1 372:1 374:1 426:1 469:1 480:1 487:1 497:1 500:1 505:1 524:1 527:1 550:1 621:1 645:1 677:1 702:1 726:1 727:1 748:1 769:1 771:1 775:1 791:1 796:1 812:1 817:1 818:1 819:1 #
0.036627542064608158145500027558228 98:1 112:1 173:1 178:1 199:1 212:1 313:1 327:1 338:1 363:1 372:1 381:1 387:1 426:1 480:1 483:1 487:1 497:1 510:1 524:1 532:1 548:1 550:1 578:1 582:1 587:1 593:1 600:1 654:1 655:1 682:1 688:1 742:1 757:1 768:1 769:1 782:1 790:1 809:1 810:1 812:1 814:1 820:1 #
0.053979463669658174496124303232136 19:1 24:1 32:1 147:1 178:1 199:1 227:1 257:1 270:1 327:1 388:1 426:1 465:1 487:1 495:1 524:1 550:1 569:1 583:1 619:1 655:1 682:1 757:1 769:1 812:1 814:1 #
-0.0322280014574960055329100327981 8:1 13:1 24:1 32:1 129:1 144:1 147:1 161:1 178:1 199:1 200:1 203:1 231:1 238:1 242:1 273:1 325:1 338:1 363:1 369:1 372:1 381:1 400:1 418:1 421:1 425:1 426:1 442:1 448:1 467:1 479:1 506:1 524:1 550:1 577:1 578:1 579:1 580:1 588:1 593:1 608:1 656:1 662:1 664:1 701:1 735:1 740:1 757:1 758:1 769:1 820:1 #
-0.053979463669658174496124303232136 9:1 24:1 26:1 32:1 55:1 84:1 88:1 173:1 175:1 178:1 227:1 231:1 305:1 327:1 426:1 465:1 480:1 511:1 524:1 550:1 579:1 593:1 692:1 705:1 752:1 759:1 805:1 812:1 #
-0.053979463669658174496124303232136 19:1 22:1 24:1 32:1 98:1 103:1 129:1 135:1 141:1 142:1 161:1 175:1 204:1 214:1 316:1 327:1 332:1 361:1 371:1 372:1 381:1 407:1 418:1 426:1 467:1 487:1 524:1 536:1 540:1 547:1 550:1 587:1 682:1 692:1 702:1 705:1 757:1 758:1 772:1 798:1 808:1 812:1 #
-0.053979463669658174496124303232136 24:1 55:1 98:1 137:1 178:1 182:1 199:1 342:1 361:1 363:1 399:1 404:1 419:1 426:1 469:1 480:1 547:1 550:1 593:1 682:1 688:1 704:1 805:1 816:1 #
-0.053979463669658174496124303232136 17:1 32:1 55:1 92:1 93:1 102:1 214:1 222:1 223:1 268:1 291:1 324:1 327:1 342:1 407:1 426:1 442:1 454:1 471:1 487:1 524:1 527:1 550:1 577:1 610:1 674:1 690:1 692:1 702:1 758:1 790:1 812:1 #
0.053979463669658174496124303232136 32:1 151:1 160:1 264:1 337:1 706:1 803:1 805:1 #
0.053979463669658174496124303232136 24:1 57:1 142:1 164:1 166:1 173:1 182:1 208:1 309:1 312:1 337:1 364:1 372:1 390:1 442:1 461:1 480:1 481:1 531:1 550:1 554:1 636:1 689:1 690:1 743:1 758:1 803:1 805:1 812:1 815:1 819:1 #
0.053979463669658174496124303232136 170:1 173:1 337:1 338:1 538:1 550:1 702:1 803:1 805:1 #
0.053979463669658174496124303232136 173:1 178:1 197:1 203:1 208:1 306:1 327:1 372:1 426:1 550:1 554:1 557:1 575:1 640:1 723:1 793:1 812:1 #
0.053979463669658174496124303232136 84:1 98:1 213:1 215:1 292:1 352:1 357:1 722:1 805:1 812:1 816:1 #
0.033239773750304603405769654500546 24:1 32:1 98:1 176:1 252:1 338:1 342:1 426:1 482:1 514:1 518:1 524:1 555:1 626:1 #
-0.0043137209544288858051319657249678 21:1 56:1 306:1 524:1 554:1 615:1 711:1 712:1 #
-0.035617357823733555854950338925846 14:1 201:1 232:1 341:1 354:1 356:1 570:1 579:1 628:1 751:1 754:1 #
-0.047929012991918061581397836334872 160:1 199:1 290:1 373:1 435:1 487:1 696:1 819:1 #
-0.053979463669658174496124303232136 53:1 57:1 173:1 178:1 254:1 352:1 426:1 525:1 538:1 711:1 712:1 816:1 #
0.0065478644793041437116576375387922 24:1 29:1 32:1 57:1 87:1 106:1 137:1 178:1 181:1 195:1 242:1 257:1 268:1 290:1 291:1 316:1 336:1 341:1 342:1 362:1 404:1 426:1 442:1 465:1 467:1 475:1 514:1 524:1 547:1 548:1 550:1 555:1 573:1 642:1 646:1 650:1 678:1 680:1 709:1 721:1 734:1 742:1 747:1 756:1 757:1 758:1 772:1 812:1 #
0.016563185558874961300634964800338 23:1 24:1 32:1 34:1 55:1 69:1 83:1 102:1 104:1 126:1 134:1 161:1 167:1 173:1 178:1 199:1 227:1 284:1 312:1 313:1 338:1 372:1 378:1 400:1 418:1 421:1 426:1 442:1 467:1 487:1 524:1 549:1 550:1 561:1 569:1 577:1 580:1 616:1 624:1 675:1 679:1 692:1 702:1 757:1 758:1 782:1 791:1 812:1 816:1 #
-0.04886958827319967668678657446435 32:1 40:1 141:1 178:1 195:1 438:1 569:1 591:1 812:1 #
0.0058048839731664782226605581172407 3:1 15:1 16:1 24:1 32:1 55:1 98:1 107:1 139:1 152:1 154:1 167:1 173:1 181:1 199:1 214:1 315:1 316:1 426:1 467:1 469:1 472:1 482:1 487:1 514:1 524:1 550:1 569:1 573:1 619:1 654:1 682:1 746:1 748:1 758:1 761:1 775:1 805:1 806:1 812:1 816:1 826:1 #
0.053979463669658174496124303232136 24:1 32:1 55:1 90:1 92:1 106:1 110:1 118:1 135:1 173:1 203:1 231:1 317:1 336:1 339:1 341:1 342:1 377:1 380:1 388:1 409:1 442:1 475:1 487:1 504:1 524:1 550:1 569:1 577:1 579:1 598:1 650:1 680:1 717:1 747:1 758:1 769:1 772:1 776:1 782:1 791:1 803:1 812:1 817:1 818:1 #
-0.053979463669658174496124303232136 19:1 32:1 58:1 81:1 103:1 173:1 178:1 182:1 199:1 247:1 262:1 284:1 309:1 335:1 341:1 346:1 372:1 391:1 403:1 426:1 467:1 470:1 480:1 487:1 514:1 517:1 548:1 550:1 577:1 593:1 616:1 722:1 761:1 769:1 789:1 805:1 812:1 #
-0.053979463669658174496124303232136 24:1 32:1 51:1 80:1 98:1 102:1 137:1 161:1 173:1 177:1 182:1 268:1 338:1 342:1 388:1 404:1 426:1 487:1 524:1 550:1 578:1 611:1 803:1 805:1 812:1 #
-0.031647366257232238673235968917652 6:1 24:1 32:1 33:1 149:1 173:1 177:1 178:1 182:1 199:1 226:1 262:1 279:1 280:1 309:1 327:1 400:1 407:1 426:1 451:1 482:1 487:1 550:1 569:1 608:1 666:1 668:1 693:1 711:1 712:1 722:1 751:1 758:1 774:1 775:1 776:1 791:1 803:1 812:1 820:1 #
0.015488104248214052544030394642505 17:1 24:1 29:1 32:1 56:1 57:1 71:1 72:1 90:1 128:1 133:1 149:1 178:1 219:1 222:1 237:1 284:1 304:1 338:1 395:1 433:1 469:1 483:1 500:1 538:1 550:1 580:1 586:1 682:1 702:1 725:1 757:1 767:1 783:1 812:1 816:1 #
-0.053979463669658174496124303232136 7:1 32:1 45:1 57:1 117:1 147:1 164:1 166:1 173:1 199:1 302:1 306:1 309:1 329:1 338:1 347:1 400:1 403:1 426:1 432:1 442:1 550:1 579:1 591:1 593:1 632:1 669:1 680:1 713:1 776:1 795:1 803:1 812:1 #
0.053979463669658174496124303232136 32:1 118:1 119:1 137:1 316:1 346:1 359:1 361:1 400:1 404:1 426:1 550:1 577:1 707:1 708:1 711:1 712:1 805:1 #
0.053979463669658174496124303232136 56:1 103:1 150:1 178:1 194:1 199:1 447:1 485:1 550:1 780:1 820:1 #
0.053979463669658174496124303232136 199:1 300:1 475:1 #
0.053979463669658174496124303232136 32:1 102:1 151:1 153:1 178:1 195:1 199:1 224:1 327:1 386:1 426:1 473:1 524:1 550:1 672:1 718:1 753:1 805:1 #
0.053979463669658174496124303232136 32:1 178:1 342:1 417:1 499:1 718:1 #
-0.038253720399249270534003386501354 24:1 120:1 157:1 178:1 194:1 524:1 748:1 #
-0.053979463669658174496124303232136 24:1 33:1 178:1 315:1 316:1 332:1 338:1 520:1 524:1 550:1 600:1 609:1 753:1 757:1 758:1 791:1 792:1 805:1 812:1 #
-0.014423466892568079580905227032872 51:1 203:1 388:1 409:1 550:1 575:1 653:1 691:1 707:1 708:1 748:1 805:1 809:1 810:1 #
-0.053979463669658174496124303232136 8:1 32:1 94:1 161:1 178:1 269:1 291:1 337:1 536:1 550:1 757:1 761:1 775:1 812:1 #
-0.053979463669658174496124303232136 32:1 46:1 56:1 111:1 178:1 373:1 483:1 510:1 586:1 604:1 682:1 761:1 799:1 #
0.053979463669658174496124303232136 32:1 50:1 55:1 67:1 79:1 94:1 199:1 203:1 204:1 296:1 338:1 372:1 407:1 426:1 432:1 465:1 483:1 487:1 509:1 519:1 548:1 550:1 711:1 712:1 734:1 805:1 812:1 #
0.046906451220059063034195645514046 24:1 27:1 32:1 43:1 57:1 67:1 87:1 118:1 143:1 173:1 178:1 182:1 242:1 269:1 286:1 291:1 338:1 372:1 394:1 400:1 411:1 426:1 429:1 442:1 480:1 487:1 524:1 550:1 584:1 641:1 650:1 743:1 757:1 776:1 780:1 812:1 #
0.053979463669658174496124303232136 19:1 24:1 32:1 43:1 92:1 98:1 173:1 178:1 182:1 242:1 244:1 381:1 389:1 407:1 442:1 455:1 485:1 497:1 514:1 550:1 558:1 577:1 584:1 692:1 715:1 741:1 812:1 #
0.0013465174740783594515419752113417 32:1 64:1 98:1 182:1 281:1 327:1 404:1 426:1 442:1 496:1 514:1 550:1 591:1 722:1 812:1 820:1 #
0.030570058958701382817446656758875 32:1 67:1 137:1 212:1 346:1 400:1 404:1 426:1 491:1 682:1 812:1 #
-0.053979463669658174496124303232136 24:1 32:1 43:1 83:1 145:1 173:1 209:1 261:1 345:1 426:1 442:1 480:1 482:1 502:1 524:1 548:1 550:1 588:1 621:1 677:1 754:1 790:1 812:1 826:1 #
-0.053979463669658174496124303232136 24:1 29:1 32:1 137:1 154:1 199:1 214:1 400:1 421:1 426:1 442:1 473:1 524:1 548:1 550:1 579:1 682:1 761:1 782:1 805:1 812:1 820:1 #
-0.04549881782213384406876599541647 32:1 81:1 100:1 103:1 134:1 161:1 178:1 199:1 217:1 235:1 327:1 336:1 342:1 372:1 376:1 382:1 389:1 404:1 421:1 426:1 442:1 451:1 482:1 495:1 550:1 551:1 588:1 631:1 645:1 658:1 702:1 762:1 812:1 #
-0.048929571578007466370330291738355 32:1 34:1 55:1 93:1 105:1 147:1 163:1 173:1 178:1 213:1 232:1 299:1 303:1 325:1 327:1 331:1 339:1 342:1 375:1 394:1 421:1 426:1 462:1 467:1 476:1 484:1 485:1 487:1 516:1 524:1 531:1 550:1 641:1 655:1 702:1 709:1 711:1 712:1 718:1 757:1 761:1 778:1 791:1 805:1 812:1 820:1 #
-0.034618670081771843460849424900516 32:1 53:1 173:1 178:1 225:1 244:1 291:1 336:1 353:1 424:1 426:1 434:1 436:1 443:1 480:1 485:1 504:1 524:1 526:1 533:1 549:1 550:1 559:1 577:1 616:1 645:1 680:1 711:1 712:1 723:1 730:1 756:1 758:1 812:1 820:1 #
0.053979463669658174496124303232136 83:1 98:1 140:1 147:1 173:1 178:1 202:1 363:1 418:1 448:1 479:1 511:1 524:1 678:1 757:1 803:1 812:1 #
0.053979463669658174496124303232136 56:1 75:1 140:1 178:1 388:1 426:1 516:1 524:1 550:1 563:1 682:1 686:1 707:1 708:1 775:1 #
0.053979463669658174496124303232136 18:1 51:1 56:1 62:1 98:1 160:1 199:1 232:1 342:1 388:1 442:1 487:1 501:1 533:1 594:1 625:1 805:1 #
0.053979463669658174496124303232136 24:1 25:1 32:1 117:1 161:1 173:1 178:1 182:1 346:1 377:1 379:1 423:1 426:1 431:1 467:1 524:1 525:1 550:1 579:1 593:1 652:1 757:1 759:1 769:1 776:1 792:1 793:1 803:1 805:1 812:1 816:1 #
0.053979463669658174496124303232136 24:1 32:1 177:1 178:1 338:1 395:1 400:1 426:1 548:1 624:1 683:1 711:1 712:1 775:1 803:1 805:1 812:1 #
-0.053979463669658174496124303232136 24:1 26:1 32:1 98:1 119:1 140:1 173:1 231:1 232:1 245:1 266:1 395:1 442:1 452:1 550:1 551:1 595:1 695:1 697:1 791:1 793:1 803:1 804:1 805:1 809:1 810:1 812:1 #
-0.043780052987505389816558221127707 20:1 25:1 84:1 97:1 98:1 178:1 183:1 191:1 240:1 373:1 377:1 397:1 423:1 550:1 697:1 742:1 808:1 819:1 #
-0.053979463669658174496124303232136 32:1 98:1 134:1 327:1 338:1 514:1 573:1 586:1 650:1 748:1 808:1 812:1 #
-0.053979463669658174496124303232136 24:1 41:1 178:1 257:1 338:1 352:1 359:1 442:1 458:1 470:1 475:1 487:1 514:1 673:1 718:1 812:1 #
-0.053979463669658174496124303232136 55:1 98:1 151:1 303:1 707:1 708:1 805:1 #
0.020352640897017382215494762931485 32:1 107:1 120:1 127:1 145:1 173:1 178:1 196:1 212:1 244:1 289:1 309:1 322:1 331:1 354:1 358:1 359:1 421:1 426:1 442:1 448:1 469:1 471:1 477:1 480:1 516:1 550:1 554:1 653:1 668:1 725:1 759:1 761:1 782:1 791:1 805:1 812:1 816:1 #
0.039477839231251830864888319183592 24:1 26:1 32:1 49:1 55:1 57:1 100:1 104:1 161:1 167:1 172:1 178:1 292:1 309:1 338:1 343:1 369:1 400:1 409:1 426:1 442:1 467:1 469:1 480:1 483:1 485:1 487:1 490:1 524:1 550:1 616:1 682:1 685:1 729:1 747:1 759:1 761:1 764:1 790:1 791:1 812:1 820:1 #
0.049907749114266174161880229576127 33:1 37:1 55:1 57:1 59:1 126:1 132:1 167:1 173:1 233:1 244:1 308:1 316:1 324:1 331:1 361:1 403:1 426:1 441:1 442:1 478:1 487:1 520:1 550:1 575:1 578:1 690:1 722:1 804:1 805:1 807:1 815:1 821:1 #
0.053979463669658174496124303232136 24:1 68:1 117:1 149:1 172:1 173:1 178:1 199:1 257:1 277:1 322:1 328:1 329:1 333:1 339:1 388:1 391:1 399:1 403:1 421:1 426:1 465:1 467:1 520:1 524:1 550:1 586:1 616:1 659:1 666:1 702:1 732:1 740:1 757:1 761:1 775:1 790:1 812:1 #
0.041798637886860071088968027197552 17:1 32:1 103:1 124:1 137:1 144:1 154:1 280:1 322:1 342:1 363:1 404:1 407:1 409:1 426:1 488:1 517:1 524:1 550:1 742:1 749:1 757:1 758:1 772:1 812:1 #
-0.053979463669658174496124303232136 24:1 32:1 41:1 55:1 60:1 182:1 187:1 198:1 212:1 280:1 309:1 338:1 348:1 381:1 421:1 426:1 467:1 469:1 488:1 503:1 516:1 546:1 550:1 668:1 740:1 759:1 761:1 780:1 #
-0.03425659176771526925886490744233 55:1 67:1 126:1 144:1 151:1 173:1 199:1 203:1 209:1 247:1 267:1 329:1 332:1 350:1 369:1 388:1 403:1 409:1 442:1 487:1 497:1 516:1 524:1 548:1 550:1 565:1 575:1 757:1 758:1 #
-0.053979463669658174496124303232136 32:1 138:1 173:1 316:1 353:1 361:1 388:1 426:1 447:1 465:1 483:1 524:1 573:1 599:1 616:1 707:1 708:1 812:1 #
-0.021098237912512592118208232250254 32:1 103:1 144:1 173:1 178:1 199:1 203:1 363:1 383:1 409:1 426:1 450:1 467:1 487:1 505:1 529:1 550:1 743:1 757:1 812:1 #
-0.053979463669658174496124303232136 32:1 144:1 173:1 217:1 242:1 289:1 317:1 338:1 343:1 363:1 389:1 395:1 400:1 426:1 505:1 550:1 577:1 593:1 626:1 680:1 727:1 757:1 760:1 790:1 803:1 812:1 825:1 #
0.053979463669658174496124303232136 88:1 98:1 163:1 809:1 810:1 #
0.053979463669658174496124303232136 32:1 62:1 144:1 472:1 535:1 758:1 809:1 810:1 812:1 #
0.053979463669658174496124303232136 32:1 53:1 79:1 98:1 178:1 258:1 327:1 455:1 550:1 597:1 607:1 787:1 812:1 819:1 #
0.053979463669658174496124303232136 48:1 100:1 127:1 173:1 203:1 327:1 347:1 352:1 510:1 539:1 550:1 619:1 709:1 812:1 #
0.053979463669658174496124303232136 32:1 102:1 178:1 180:1 237:1 265:1 325:1 338:1 463:1 487:1 527:1 550:1 555:1 711:1 712:1 751:1 799:1 812:1 823:1 #
-0.003907151003804100464211757071098 7:1 23:1 26:1 73:1 144:1 178:1 180:1 235:1 269:1 306:1 309:1 319:1 439:1 479:1 483:1 524:1 527:1 538:1 550:1 591:1 619:1 692:1 759:1 805:1 809:1 810:1 812:1 822:1 #
-0.025888727412785739884215630013387 32:1 61:1 149:1 173:1 178:1 280:1 363:1 550:1 589:1 619:1 638:1 650:1 702:1 711:1 712:1 722:1 #
-0.053979463669658174496124303232136 32:1 72:1 160:1 178:1 311:1 793:1 #
-0.053979463669658174496124303232136 167:1 178:1 286:1 317:1 426:1 467:1 480:1 497:1 550:1 650:1 653:1 786:1 812:1 #
-0.042060103713641903977471514508579 42:1 173:1 178:1 203:1 241:1 358:1 393:1 410:1 483:1 547:1 550:1 619:1 702:1 758:1 789:1 790:1 804:1 805:1 809:1 810:1 812:1 #
0.053979463669658174496124303232136 32:1 55:1 66:1 85:1 177:1 199:1 289:1 317:1 418:1 421:1 426:1 455:1 501:1 550:1 551:1 650:1 702:1 707:1 708:1 718:1 757:1 803:1 809:1 810:1 812:1 826:1 #
0.053979463669658174496124303232136 32:1 39:1 157:1 199:1 316:1 327:1 331:1 338:1 346:1 425:1 426:1 470:1 524:1 577:1 591:1 #
0.017860197470315218593039929828592 32:1 98:1 157:1 178:1 338:1 404:1 426:1 518:1 577:1 584:1 597:1 600:1 604:1 812:1 #
0.053979463669658174496124303232136 32:1 55:1 98:1 178:1 203:1 325:1 338:1 369:1 375:1 390:1 421:1 470:1 502:1 514:1 548:1 579:1 689:1 757:1 789:1 805:1 #
0.025053883573559553032961133567369 32:1 98:1 122:1 173:1 182:1 199:1 259:1 260:1 331:1 372:1 418:1 426:1 469:1 470:1 524:1 548:1 550:1 656:1 702:1 758:1 761:1 783:1 805:1 #
-0.053979463669658174496124303232136 32:1 80:1 98:1 139:1 342:1 372:1 376:1 421:1 426:1 487:1 516:1 562:1 591:1 655:1 737:1 753:1 755:1 757:1 799:1 805:1 812:1 #
-0.053979463669658174496124303232136 87:1 102:1 195:1 409:1 426:1 458:1 518:1 524:1 547:1 555:1 569:1 578:1 757:1 781:1 803:1 805:1 #
-0.053979463669658174496124303232136 32:1 98:1 103:1 123:1 144:1 173:1 178:1 186:1 199:1 233:1 268:1 319:1 408:1 501:1 524:1 548:1 550:1 594:1 675:1 676:1 680:1 682:1 709:1 737:1 757:1 759:1 791:1 809:1 810:1 812:1 816:1 #
-0.053979463669658174496124303232136 32:1 56:1 96:1 98:1 150:1 548:1 550:1 707:1 708:1 711:1 712:1 759:1 765:1 805:1 812:1 #
0.053979463669658174496124303232136 24:1 26:1 32:1 144:1 178:1 312:1 337:1 363:1 391:1 424:1 427:1 428:1 432:1 467:1 483:1 484:1 491:1 524:1 550:1 559:1 682:1 717:1 749:1 812:1 817:1 818:1 821:1 #
0.053979463669658174496124303232136 24:1 32:1 178:1 199:1 294:1 310:1 313:1 319:1 442:1 483:1 485:1 486:1 510:1 550:1 608:1 610:1 629:1 718:1 780:1 791:1 804:1 812:1 820:1 #
0.053979463669658174496124303232136 17:1 29:1 63:1 102:1 173:1 199:1 226:1 306:1 357:1 371:1 395:1 418:1 426:1 500:1 522:1 550:1 664:1 718:1 758:1 767:1 793:1 808:1 812:1 817:1 818:1 824:1 #
0.030100125512940258121208358943477 23:1 24:1 32:1 43:1 85:1 92:1 93:1 173:1 178:1 194:1 208:1 247:1 305:1 309:1 313:1 338:1 341:1 342:1 400:1 426:1 480:1 487:1 516:1 524:1 547:1 550:1 556:1 561:1 562:1 573:1 626:1 643:1 653:1 658:1 680:1 732:1 741:1 757:1 759:1 790:1 803:1 805:1 811:1 812:1 826:1 #
-0.053979463669658174496124303232136 24:1 32:1 43:1 103:1 167:1 168:1 178:1 189:1 199:1 208:1 269:1 294:1 306:1 317:1 331:1 338:1 426:1 442:1 480:1 550:1 551:1 664:1 679:1 682:1 688:1 747:1 754:1 775:1 794:1 803:1 805:1 812:1 817:1 818:1 #
-0.053979463669658174496124303232136 24:1 32:1 45:1 79:1 176:1 178:1 199:1 258:1 277:1 295:1 352:1 400:1 418:1 426:1 467:1 483:1 490:1 524:1 550:1 557:1 573:1 616:1 736:1 805:1 812:1 #
-0.053979463669658174496124303232136 24:1 32:1 118:1 147:1 173:1 178:1 199:1 217:1 291:1 338:1 359:1 363:1 400:1 426:1 455:1 469:1 479:1 480:1 482:1 520:1 524:1 550:1 597:1 650:1 653:1 655:1 757:1 758:1 812:1 826:1 #
-0.053979463669658174496124303232136 32:1 178:1 199:1 294:1 295:1 338:1 372:1 426:1 524:1 550:1 574:1 577:1 608:1 648:1 723:1 727:1 772:1 776:1 782:1 812:1 #
0.053979463669658174496124303232136 98:1 173:1 239:1 426:1 524:1 544:1 711:1 712:1 #
0.053979463669658174496124303232136 17:1 98:1 228:1 231:1 369:1 548:1 575:1 805:1 812:1 #
0.0087328389416356944768837777814952 12:1 32:1 98:1 137:1 173:1 253:1 400:1 404:1 405:1 426:1 450:1 572:1 626:1 668:1 707:1 708:1 724:1 799:1 805:1 812:1 820:1 #
0.04825026545586370840812406868281 32:1 60:1 74:1 129:1 145:1 169:1 223:1 388:1 421:1 424:1 426:1 478:1 483:1 487:1 504:1 505:1 507:1 513:1 514:1 534:1 548:1 550:1 559:1 569:1 759:1 783:1 805:1 809:1 812:1 #
0.053979463669658174496124303232136 14:1 98:1 137:1 199:1 211:1 354:1 487:1 548:1 682:1 774:1 805:1 #
-0.053979463669658174496124303232136 98:1 114:1 118:1 138:1 173:1 232:1 335:1 400:1 689:1 711:1 712:1 718:1 732:1 759:1 761:1 812:1 #
-0.035559872556801007392746072355294 12:1 99:1 177:1 181:1 259:1 324:1 354:1 370:1 391:1 423:1 459:1 467:1 487:1 548:1 663:1 759:1 800:1 804:1 812:1 #
0.0020030428881360486624563232993523 32:1 36:1 55:1 114:1 149:1 157:1 173:1 178:1 218:1 256:1 338:1 346:1 348:1 426:1 442:1 467:1 470:1 485:1 517:1 550:1 569:1 579:1 616:1 648:1 653:1 668:1 698:1 758:1 794:1 807:1 808:1 812:1 #
-0.035410051129733263741705684424232 55:1 84:1 207:1 333:1 352:1 419:1 424:1 452:1 483:1 487:1 548:1 559:1 654:1 702:1 806:1 #
-0.053979463669658174496124303232136 32:1 57:1 116:1 174:1 390:1 426:1 653:1 707:1 708:1 #
0.053979463669658174496124303232136 24:1 32:1 120:1 129:1 173:1 178:1 199:1 269:1 280:1 327:1 361:1 397:1 455:1 467:1 469:1 487:1 524:1 550:1 553:1 569:1 594:1 626:1 650:1 655:1 674:1 688:1 702:1 758:1 812:1 #
0.053979463669658174496124303232136 32:1 33:1 144:1 161:1 173:1 178:1 295:1 298:1 316:1 369:1 400:1 426:1 431:1 443:1 467:1 469:1 487:1 502:1 514:1 524:1 550:1 555:1 569:1 616:1 650:1 706:1 776:1 779:1 812:1 820:1 825:1 #
0.047276779638834094676713704075155 1:1 24:1 32:1 81:1 90:1 115:1 126:1 165:1 178:1 182:1 227:1 242:1 338:1 342:1 354:1 360:1 379:1 400:1 426:1 442:1 480:1 492:1 524:1 550:1 569:1 616:1 658:1 682:1 757:1 805:1 812:1 #
0.053979463669658174496124303232136 24:1 32:1 43:1 98:1 101:1 173:1 178:1 185:1 327:1 338:1 389:1 426:1 442:1 467:1 480:1 487:1 524:1 548:1 550:1 566:1 577:1 585:1 588:1 664:1 702:1 709:1 756:1 757:1 762:1 773:1 807:1 812:1 #
0.024541626602304064674875405671628 24:1 32:1 57:1 98:1 116:1 120:1 139:1 173:1 177:1 178:1 199:1 274:1 310:1 338:1 372:1 400:1 426:1 479:1 502:1 524:1 529:1 549:1 550:1 553:1 588:1 667:1 688:1 716:1 723:1 757:1 758:1 782:1 803:1 812:1 #
-0.053979463669658174496124303232136 17:1 24:1 32:1 52:1 129:1 132:1 173:1 178:1 199:1 243:1 279:1 325:1 327:1 400:1 417:1 418:1 426:1 451:1 467:1 487:1 514:1 524:1 550:1 578:1 580:1 593:1 608:1 636:1 650:1 664:1 671:1 682:1 683:1 736:1 757:1 803:1 805:1 812:1 #
-0.038676109916792864029666532132978 17:1 24:1 27:1 32:1 80:1 98:1 118:1 141:1 147:1 173:1 178:1 212:1 222:1 234:1 265:1 269:1 287:1 289:1 291:1 316:1 338:1 354:1 400:1 426:1 467:1 484:1 487:1 490:1 540:1 550:1 561:1 578:1 588:1 592:1 617:1 655:1 656:1 659:1 702:1 757:1 764:1 772:1 803:1 812:1 #
-0.039429151951399614428606099636454 7:1 18:1 32:1 39:1 120:1 173:1 178:1 199:1 212:1 227:1 300:1 306:1 309:1 327:1 428:1 442:1 481:1 524:1 539:1 550:1 573:1 575:1 591:1 593:1 597:1 610:1 626:1 702:1 729:1 737:1 757:1 759:1 798:1 812:1 816:1 #
-0.035871917470100586622372418332816 32:1 83:1 115:1 173:1 178:1 199:1 223:1 244:1 269:1 294:1 303:1 306:1 316:1 400:1 426:1 435:1 480:1 524:1 550:1 552:1 577:1 626:1 669:1 748:1 757:1 758:1 807:1 812:1 #
0.053979463669658174496124303232136 24:1 82:1 140:1 178:1 222:1 240:1 314:1 329:1 403:1 683:1 791:1 #
0.053979463669658174496124303232136 43:1 137:1 177:1 212:1 390:1 404:1 426:1 490:1 550:1 759:1 803:1 805:1 808:1 812:1 819:1 #
0.053979463669658174496124303232136 32:1 178:1 199:1 300:1 402:1 440:1 484:1 524:1 548:1 #
-0.053979463669658174496124303232136 24:1 137:1 173:1 178:1 195:1 199:1 331:1 404:1 426:1 514:1 524:1 680:1 #
-0.053979463669658174496124303232136 24:1 48:1 524:1 758:1 812:1 816:1 #
-0.053979463669658174496124303232136 24:1 178:1 274:1 340:1 346:1 426:1 524:1 637:1 812:1 #
-0.053979463669658174496124303232136 17:1 32:1 98:1 178:1 288:1 310:1 315:1 332:1 550:1 629:1 636:1 690:1 791:1 812:1 820:1 #
-0.053979463669658174496124303232136 24:1 32:1 #
0.053979463669658174496124303232136 32:1 45:1 55:1 157:1 173:1 178:1 353:1 355:1 426:1 461:1 544:1 550:1 568:1 614:1 653:1 665:1 669:1 682:1 702:1 757:1 758:1 805:1 809:1 810:1 #
0.053979463669658174496124303232136 22:1 32:1 98:1 176:1 178:1 199:1 316:1 363:1 376:1 426:1 440:1 453:1 520:1 521:1 524:1 550:1 605:1 653:1 707:1 708:1 791:1 807:1 820:1 #
0.053979463669658174496124303232136 32:1 178:1 199:1 220:1 240:1 244:1 289:1 306:1 314:1 331:1 414:1 483:1 550:1 573:1 690:1 757:1 804:1 805:1 #
0.025073465626728547173129868497199 16:1 31:1 32:1 49:1 52:1 98:1 102:1 173:1 178:1 204:1 264:1 279:1 317:1 330:1 338:1 390:1 400:1 426:1 467:1 524:1 550:1 574:1 702:1 706:1 803:1 805:1 812:1 816:1 824:1 #
0.053979463669658174496124303232136 33:1 129:1 208:1 312:1 409:1 426:1 480:1 524:1 550:1 578:1 586:1 619:1 675:1 707:1 708:1 750:1 759:1 #
-0.053979463669658174496124303232136 32:1 144:1 173:1 178:1 182:1 326:1 331:1 355:1 426:1 442:1 480:1 524:1 548:1 550:1 573:1 577:1 672:1 682:1 758:1 772:1 805:1 #
-0.053979463669658174496124303232136 28:1 32:1 112:1 125:1 173:1 363:1 426:1 442:1 467:1 524:1 548:1 550:1 586:1 606:1 707:1 708:1 803:1 805:1 812:1 817:1 818:1 #
-0.053979463669658174496124303232136 32:1 178:1 312:1 550:1 716:1 805:1 #
-0.053979463669658174496124303232136 24:1 32:1 52:1 92:1 98:1 102:1 144:1 178:1 199:1 212:1 298:1 309:1 363:1 389:1 394:1 409:1 421:1 455:1 483:1 487:1 524:1 548:1 550:1 574:1 705:1 707:1 708:1 733:1 744:1 761:1 775:1 809:1 810:1 812:1 #
0.053979463669658174496124303232136 24:1 150:1 327:1 426:1 516:1 683:1 804:1 #
0.053979463669658174496124303232136 24:1 32:1 98:1 110:1 112:1 154:1 167:1 178:1 189:1 208:1 233:1 291:1 327:1 332:1 345:1 426:1 460:1 578:1 653:1 761:1 812:1 #
0.053979463669658174496124303232136 32:1 182:1 199:1 426:1 591:1 761:1 812:1 816:1 #
0.053979463669658174496124303232136 24:1 32:1 243:1 274:1 338:1 514:1 524:1 619:1 654:1 682:1 761:1 812:1 #
0.053979463669658174496124303232136 32:1 137:1 178:1 199:1 404:1 426:1 680:1 812:1 #
-0.053979463669658174496124303232136 4:1 9:1 51:1 98:1 99:1 149:1 178:1 194:1 215:1 229:1 269:1 309:1 313:1 338:1 342:1 376:1 417:1 426:1 461:1 477:1 487:1 514:1 656:1 699:1 788:1 803:1 805:1 808:1 812:1 816:1 #
-0.053979463669658174496124303232136 57:1 187:1 338:1 425:1 426:1 480:1 484:1 547:1 550:1 560:1 757:1 805:1 812:1 #
-0.053979463669658174496124303232136 199:1 211:1 300:1 484:1 550:1 683:1 #
-0.053979463669658174496124303232136 98:1 178:1 279:1 426:1 573:1 756:1 812:1 #
0.053979463669658174496124303232136 32:1 66:1 84:1 88:1 178:1 195:1 215:1 338:1 342:1 346:1 361:1 372:1 417:1 442:1 467:1 505:1 524:1 573:1 579:1 600:1 604:1 718:1 736:1 759:1 805:1 812:1 #
0.02832284571424436084297049376346 10:1 32:1 98:1 128:1 173:1 178:1 243:1 284:1 301:1 363:1 404:1 426:1 458:1 477:1 483:1 487:1 498:1 502:1 542:1 573:1 593:1 673:1 704:1 805:1 812:1 816:1 #
0.053979463669658174496124303232136 16:1 24:1 32:1 173:1 178:1 293:1 295:1 310:1 316:1 338:1 400:1 405:1 407:1 426:1 482:1 487:1 524:1 550:1 561:1 635:1 660:1 758:1 790:1 812:1 #
0.053979463669658174496124303232136 24:1 32:1 167:1 189:1 195:1 199:1 259:1 309:1 338:1 384:1 426:1 428:1 442:1 482:1 524:1 550:1 581:1 757:1 761:1 771:1 791:1 803:1 805:1 812:1 819:1 #
-0.053979463669658174496124303232136 24:1 26:1 32:1 56:1 79:1 120:1 178:1 295:1 400:1 426:1 490:1 516:1 805:1 812:1 #
-0.053979463669658174496124303232136 32:1 173:1 191:1 289:1 342:1 344:1 388:1 400:1 467:1 570:1 582:1 619:1 624:1 625:1 711:1 728:1 766:1 805:1 #
-0.028450280370643940552888295769662 12:1 26:1 32:1 33:1 67:1 94:1 103:1 173:1 178:1 262:1 309:1 327:1 400:1 411:1 426:1 455:1 479:1 498:1 524:1 550:1 551:1 610:1 682:1 713:1 716:1 736:1 757:1 758:1 791:1 805:1 812:1 #
-0.053979463669658174496124303232136 32:1 173:1 182:1 199:1 327:1 352:1 421:1 426:1 480:1 514:1 524:1 550:1 591:1 812:1 #
-0.053979463669658174496124303232136 32:1 48:1 56:1 78:1 173:1 178:1 188:1 195:1 224:1 304:1 327:1 400:1 426:1 463:1 545:1 588:1 751:1 758:1 793:1 812:1 #
0.053979463669658174496124303232136 159:1 186:1 263:1 289:1 351:1 374:1 421:1 426:1 455:1 496:1 497:1 550:1 680:1 692:1 693:1 702:1 812:1 816:1 #
0.053979463669658174496124303232136 56:1 147:1 150:1 164:1 166:1 173:1 192:1 337:1 516:1 550:1 812:1 816:1 820:1 821:1 #
0.053979463669658174496124303232136 32:1 63:1 98:1 199:1 426:1 451:1 612:1 656:1 723:1 805:1 812:1 #
-0.053979463669658174496124303232136 24:1 69:1 81:1 144:1 178:1 181:1 231:1 244:1 273:1 284:1 285:1 301:1 321:1 372:1 406:1 418:1 426:1 442:1 473:1 524:1 550:1 552:1 690:1 702:1 718:1 812:1 822:1 #
-0.038645297506280165689140915219468 30:1 31:1 32:1 161:1 178:1 194:1 238:1 307:1 327:1 461:1 550:1 631:1 666:1 674:1 680:1 717:1 758:1 812:1 820:1 #
-0.035438393502955835290268993276186 32:1 81:1 147:1 149:1 178:1 193:1 337:1 429:1 442:1 482:1 514:1 520:1 524:1 532:1 550:1 702:1 791:1 792:1 808:1 812:1 #
-0.053979463669658174496124303232136 32:1 73:1 117:1 122:1 173:1 200:1 227:1 260:1 268:1 313:1 327:1 342:1 426:1 442:1 467:1 550:1 576:1 591:1 680:1 692:1 812:1 #
-0.053979463669658174496124303232136 131:1 204:1 311:1 380:1 483:1 627:1 803:1 805:1 819:1 #
0.053979463669658174496124303232136 32:1 178:1 202:1 535:1 768:1 805:1 812:1 #
0.053979463669658174496124303232136 32:1 57:1 116:1 173:1 178:1 426:1 461:1 515:1 644:1 704:1 #
0.053979463669658174496124303232136 28:1 32:1 59:1 140:1 158:1 178:1 199:1 342:1 653:1 672:1 812:1 #
0.053979463669658174496124303232136 24:1 32:1 146:1 172:1 178:1 426:1 524:1 550:1 588:1 757:1 #
-0.053979463669658174496124303232136 32:1 178:1 352:1 718:1 761:1 #
-0.053979463669658174496124303232136 32:1 56:1 178:1 310:1 328:1 516:1 554:1 805:1 812:1 #
-0.053979463669658174496124303232136 55:1 59:1 178:1 199:1 535:1 550:1 553:1 564:1 678:1 812:1 #
-0.053979463669658174496124303232136 24:1 32:1 157:1 178:1 424:1 524:1 559:1 #
-0.053979463669658174496124303232136 32:1 178:1 603:1 791:1 #
0.053979463669658174496124303232136 32:1 81:1 98:1 178:1 190:1 199:1 426:1 442:1 473:1 483:1 550:1 603:1 655:1 668:1 735:1 812:1 #
0.044655826390541046577720152299662 3:1 19:1 23:1 27:1 32:1 34:1 72:1 84:1 98:1 118:1 143:1 144:1 173:1 241:1 285:1 327:1 354:1 363:1 375:1 386:1 400:1 418:1 433:1 467:1 483:1 487:1 507:1 514:1 516:1 524:1 555:1 614:1 619:1 626:1 703:1 717:1 761:1 772:1 805:1 809:1 810:1 826:1 #
0.053979463669658174496124303232136 32:1 55:1 85:1 92:1 102:1 144:1 222:1 243:1 313:1 315:1 327:1 342:1 364:1 476:1 487:1 517:1 550:1 702:1 705:1 707:1 708:1 717:1 718:1 736:1 748:1 775:1 805:1 809:1 810:1 812:1 819:1 #
0.0211493996492680309817746575618 32:1 40:1 98:1 161:1 197:1 269:1 338:1 372:1 426:1 442:1 487:1 507:1 524:1 546:1 548:1 577:1 653:1 655:1 752:1 772:1 812:1 #
-0.053979463669658174496124303232136 32:1 98:1 161:1 173:1 178:1 184:1 313:1 426:1 550:1 577:1 581:1 588:1 759:1 772:1 812:1 #
-0.053979463669658174496124303232136 32:1 98:1 167:1 173:1 178:1 269:1 291:1 338:1 400:1 426:1 451:1 480:1 485:1 507:1 524:1 552:1 575:1 622:1 680:1 780:1 803:1 812:1 #
-0.053979463669658174496124303232136 32:1 98:1 178:1 199:1 303:1 312:1 349:1 355:1 363:1 372:1 388:1 524:1 550:1 578:1 586:1 603:1 757:1 812:1 #
0.053979463669658174496124303232136 32:1 56:1 156:1 173:1 390:1 683:1 758:1 804:1 #
0.053979463669658174496124303232136 32:1 178:1 337:1 483:1 527:1 541:1 550:1 812:1 816:1 #
0.053979463669658174496124303232136 32:1 160:1 178:1 193:1 404:1 426:1 593:1 #
0.053979463669658174496124303232136 32:1 57:1 129:1 173:1 261:1 553:1 568:1 803:1 804:1 812:1 #
-0.053979463669658174496124303232136 32:1 42:1 74:1 78:1 327:1 416:1 421:1 442:1 467:1 534:1 550:1 597:1 653:1 669:1 723:1 736:1 801:1 802:1 805:1 812:1 #
-0.053979463669658174496124303232136 24:1 32:1 41:1 84:1 92:1 120:1 122:1 199:1 260:1 470:1 524:1 748:1 #
-0.032394812533288769307304733047204 57:1 84:1 199:1 409:1 424:1 514:1 523:1 531:1 548:1 559:1 653:1 675:1 784:1 805:1 #
0.053979463669658174496124303232136 32:1 178:1 179:1 327:1 338:1 407:1 426:1 488:1 524:1 550:1 812:1 #
0.053979463669658174496124303232136 24:1 32:1 98:1 178:1 331:1 338:1 372:1 378:1 426:1 524:1 680:1 772:1 780:1 789:1 805:1 811:1 812:1 #
0.053979463669658174496124303232136 24:1 98:1 120:1 291:1 292:1 316:1 367:1 426:1 442:1 465:1 524:1 550:1 624:1 748:1 812:1 820:1 #
-0.053979463669658174496124303232136 24:1 98:1 162:1 167:1 173:1 178:1 207:1 212:1 274:1 327:1 373:1 419:1 421:1 426:1 456:1 533:1 550:1 572:1 616:1 619:1 702:1 711:1 712:1 717:1 757:1 758:1 789:1 812:1 #
-0.053979463669658174496124303232136 24:1 93:1 205:1 297:1 426:1 464:1 467:1 469:1 487:1 517:1 547:1 550:1 623:1 693:1 758:1 812:1 #
-0.053979463669658174496124303232136 24:1 32:1 103:1 149:1 161:1 173:1 178:1 199:1 227:1 265:1 299:1 316:1 338:1 347:1 426:1 487:1 550:1 701:1 747:1 805:1 808:1 812:1 #
-0.053979463669658174496124303232136 56:1 178:1 426:1 489:1 680:1 741:1 809:1 810:1 #
-0.033776153645469764175146565321484 24:1 133:1 155:1 167:1 173:1 178:1 184:1 199:1 294:1 338:1 342:1 372:1 373:1 426:1 473:1 476:1 480:1 483:1 524:1 550:1 575:1 616:1 691:1 718:1 723:1 782:1 791:1 812:1 #
0.053979463669658174496124303232136 16:1 98:1 268:1 487:1 524:1 551:1 573:1 579:1 748:1 749:1 805:1 812:1 #
0.053979463669658174496124303232136 32:1 55:1 156:1 197:1 208:1 231:1 250:1 272:1 442:1 539:1 653:1 664:1 669:1 758:1 793:1 805:1 812:1 #
-0.033358519882967396785744540466112 5:1 31:1 32:1 39:1 45:1 173:1 203:1 304:1 337:1 342:1 397:1 448:1 524:1 525:1 543:1 548:1 550:1 702:1 707:1 708:1 758:1 812:1 #
-0.047017460112236522662421123186505 55:1 160:1 173:1 178:1 338:1 372:1 424:1 442:1 455:1 519:1 527:1 550:1 608:1 613:1 670:1 711:1 712:1 748:1 757:1 805:1 812:1 819:1 #
-0.05202560022528215227799464059899 50:1 110:1 190:1 206:1 283:1 308:1 309:1 332:1 404:1 409:1 442:1 487:1 550:1 569:1 682:1 711:1 712:1 805:1 812:1 #
-0.053979463669658174496124303232136 1:1 10:1 24:1 32:1 98:1 151:1 162:1 170:1 178:1 199:1 233:1 267:1 413:1 514:1 524:1 550:1 663:1 761:1 772:1 805:1 812:1 #
0.044717306856398172931754686487693 24:1 32:1 55:1 137:1 178:1 199:1 277:1 400:1 401:1 404:1 426:1 467:1 477:1 550:1 653:1 680:1 702:1 753:1 #
0.053979463669658174496124303232136 32:1 120:1 173:1 175:1 212:1 229:1 327:1 331:1 372:1 426:1 467:1 469:1 485:1 550:1 709:1 812:1 #
0.053979463669658174496124303232136 24:1 32:1 178:1 212:1 313:1 407:1 421:1 426:1 442:1 455:1 520:1 550:1 580:1 680:1 690:1 734:1 741:1 812:1 826:1 #
-0.053979463669658174496124303232136 32:1 178:1 201:1 440:1 695:1 807:1 812:1 #
-0.053979463669658174496124303232136 7:1 16:1 55:1 68:1 178:1 269:1 320:1 338:1 363:1 372:1 383:1 426:1 478:1 524:1 550:1 575:1 586:1 672:1 751:1 812:1 #
0.053979463669658174496124303232136 92:1 98:1 178:1 199:1 248:1 249:1 264:1 338:1 426:1 548:1 653:1 723:1 757:1 808:1 812:1 #
0.053979463669658174496124303232136 116:1 140:1 178:1 248:1 264:1 327:1 338:1 418:1 426:1 470:1 504:1 514:1 516:1 552:1 609:1 619:1 759:1 761:1 812:1 #
0.053979463669658174496124303232136 24:1 161:1 183:1 227:1 239:1 338:1 369:1 426:1 483:1 524:1 550:1 682:1 718:1 758:1 805:1 #
0.01463061415140893412045741683869 160:1 220:1 248:1 264:1 291:1 309:1 338:1 426:1 470:1 550:1 653:1 805:1 812:1 #
-0.016987584295927359023803404625141 24:1 140:1 373:1 385:1 395:1 531:1 570:1 630:1 820:1 #
-0.028308856335805848702946718731255 8:1 32:1 45:1 49:1 57:1 92:1 112:1 123:1 163:1 178:1 200:1 203:1 232:1 249:1 325:1 337:1 344:1 421:1 426:1 429:1 430:1 448:1 516:1 524:1 578:1 583:1 614:1 629:1 657:1 732:1 764:1 789:1 800:1 803:1 805:1 808:1 812:1 #
-0.053979463669658174496124303232136 32:1 178:1 400:1 551:1 706:1 778:1 805:1 #
-0.042719834820214228066070916156605 185:1 199:1 211:1 270:1 292:1 303:1 325:1 367:1 415:1 426:1 481:1 578:1 620:1 682:1 707:1 708:1 790:1 803:1 805:1 #
0.051294563431546057186150022744187 32:1 102:1 147:1 152:1 167:1 173:1 178:1 189:1 199:1 227:1 274:1 329:1 333:1 403:1 414:1 442:1 465:1 492:1 524:1 550:1 569:1 588:1 641:1 642:1 671:1 758:1 759:1 812:1 816:1 #
0.053979463669658174496124303232136 32:1 74:1 98:1 173:1 182:1 325:1 400:1 469:1 524:1 550:1 576:1 592:1 616:1 619:1 653:1 655:1 680:1 682:1 713:1 751:1 758:1 812:1 816:1 #
0.053979463669658174496124303232136 32:1 229:1 242:1 260:1 372:1 417:1 426:1 480:1 587:1 683:1 772:1 780:1 #
0.053979463669658174496124303232136 16:1 82:1 102:1 129:1 140:1 202:1 232:1 289:1 317:1 400:1 417:1 442:1 494:1 625:1 653:1 732:1 803:1 805:1 812:1 #
0.053979463669658174496124303232136 24:1 32:1 57:1 178:1 231:1 292:1 309:1 338:1 367:1 426:1 487:1 524:1 550:1 611:1 757:1 805:1 #
-0.03065881711649395824359487505717 76:1 92:1 161:1 220:1 228:1 291:1 363:1 487:1 594:1 596:1 705:1 743:1 751:1 758:1 759:1 812:1 #
0.053979463669658174496124303232136 2:1 24:1 32:1 70:1 181:1 199:1 228:1 338:1 398:1 400:1 426:1 444:1 465:1 548:1 550:1 600:1 620:1 680:1 698:1 743:1 769:1 805:1 812:1 #
0.027784295412604541331003105142372 21:1 24:1 26:1 32:1 55:1 137:1 168:1 178:1 309:1 327:1 400:1 404:1 426:1 524:1 550:1 580:1 659:1 719:1 749:1 791:1 809:1 810:1 812:1 #
0.045492015391756485120922093301488 32:1 38:1 98:1 130:1 178:1 197:1 199:1 240:1 250:1 314:1 318:1 327:1 336:1 338:1 342:1 344:1 442:1 524:1 544:1 548:1 550:1 575:1 675:1 711:1 712:1 718:1 757:1 812:1 816:1 #
-0.053979463669658174496124303232136 32:1 178:1 338:1 480:1 514:1 550:1 647:1 #
-0.037477882889943088529083325965985 32:1 178:1 199:1 298:1 442:1 531:1 548:1 550:1 597:1 655:1 677:1 691:1 718:1 757:1 791:1 812:1 820:1 #
0.053979463669658174496124303232136 32:1 34:1 57:1 102:1 108:1 146:1 173:1 178:1 226:1 390:1 426:1 430:1 480:1 524:1 549:1 550:1 709:1 742:1 758:1 803:1 812:1 #
0.053979463669658174496124303232136 98:1 137:1 178:1 280:1 404:1 426:1 482:1 550:1 759:1 790:1 812:1 #
0.051242440836766156575521335980739 32:1 137:1 173:1 221:1 404:1 424:1 426:1 484:1 559:1 722:1 812:1 826:1 #
0.053979463669658174496124303232136 32:1 98:1 137:1 160:1 161:1 173:1 178:1 242:1 244:1 259:1 363:1 404:1 415:1 426:1 480:1 510:1 550:1 593:1 702:1 812:1 820:1 #
-0.053979463669658174496124303232136 98:1 146:1 178:1 199:1 211:1 550:1 #
-0.031560776401530148127516639533496 24:1 50:1 55:1 103:1 173:1 178:1 194:1 257:1 338:1 363:1 386:1 426:1 465:1 479:1 505:1 513:1 529:1 547:1 550:1 578:1 611:1 636:1 650:1 680:1 682:1 702:1 705:1 743:1 812:1 820:1 #
-0.053979463669658174496124303232136 13:1 173:1 178:1 229:1 461:1 524:1 718:1 #
-0.053979463669658174496124303232136 7:1 140:1 201:1 487:1 696:1 714:1 748:1 751:1 804:1 #
0.026625985140669928413759137697525 24:1 32:1 70:1 173:1 178:1 182:1 209:1 316:1 351:1 418:1 426:1 442:1 488:1 499:1 524:1 550:1 579:1 591:1 763:1 805:1 812:1 #
0.013135665783802395745194502296727 24:1 32:1 98:1 109:1 173:1 178:1 199:1 203:1 387:1 388:1 400:1 426:1 458:1 483:1 487:1 488:1 495:1 524:1 550:1 569:1 616:1 650:1 702:1 718:1 757:1 812:1 #
-0.014416232318169429349463683820431 22:1 24:1 32:1 91:1 103:1 108:1 171:1 178:1 182:1 189:1 190:1 194:1 199:1 217:1 244:1 257:1 287:1 291:1 297:1 327:1 328:1 336:1 359:1 371:1 407:1 409:1 426:1 464:1 473:1 480:1 482:1 506:1 519:1 524:1 549:1 550:1 588:1 687:1 692:1 734:1 757:1 759:1 790:1 805:1 808:1 812:1 820:1 #
0.053979463669658174496124303232136 140:1 248:1 284:1 372:1 426:1 487:1 524:1 548:1 717:1 718:1 758:1 805:1 #
-0.025817233237212539737059913136363 32:1 149:1 169:1 181:1 199:1 203:1 210:1 400:1 402:1 409:1 442:1 446:1 487:1 524:1 548:1 577:1 637:1 655:1 667:1 678:1 685:1 826:1 #
0.0033636973852281138591679976457272 32:1 137:1 178:1 206:1 316:1 404:1 426:1 494:1 555:1 640:1 778:1 805:1 #
0.053979463669658174496124303232136 13:1 32:1 35:1 173:1 178:1 282:1 329:1 336:1 384:1 400:1 403:1 404:1 426:1 550:1 678:1 807:1 #
-0.010438219333575578934292238386661 42:1 57:1 102:1 240:1 314:1 327:1 353:1 448:1 508:1 550:1 711:1 712:1 751:1 758:1 800:1 812:1 #
-0.053979463669658174496124303232136 24:1 32:1 34:1 161:1 173:1 178:1 234:1 247:1 256:1 269:1 324:1 332:1 375:1 407:1 426:1 524:1 550:1 758:1 809:1 810:1 812:1 #
-0.046527175139441330486977932423542 7:1 24:1 32:1 145:1 176:1 203:1 244:1 306:1 329:1 338:1 403:1 417:1 420:1 483:1 487:1 538:1 545:1 548:1 550:1 556:1 557:1 561:1 573:1 664:1 681:1 702:1 707:1 708:1 751:1 758:1 791:1 812:1 #
0.035882312454458026307335671845067 24:1 32:1 89:1 173:1 177:1 199:1 313:1 323:1 337:1 359:1 403:1 442:1 451:1 466:1 480:1 483:1 485:1 550:1 579:1 642:1 698:1 743:1 812:1 820:1 #
-0.042367881451204625342654708219925 225:1 240:1 314:1 526:1 550:1 650:1 711:1 712:1 774:1 805:1 812:1 #
0.048137970760083061139145144124996 24:1 32:1 129:1 173:1 178:1 182:1 196:1 338:1 426:1 442:1 524:1 636:1 757:1 758:1 761:1 812:1 #
-0.039791914971645019061252668279849 21:1 32:1 178:1 229:1 294:1 480:1 550:1 551:1 569:1 592:1 593:1 627:1 643:1 718:1 761:1 812:1 #
-0.012517918110831105851787903304739 78:1 178:1 199:1 357:1 384:1 534:1 550:1 586:1 718:1 820:1 #
-0.025347713410093994368388337079523 8:1 32:1 161:1 178:1 437:1 550:1 826:1 #
-0.053979463669658174496124303232136 32:1 199:1 352:1 467:1 #
0.021830745802790863657749653725659 92:1 140:1 173:1 178:1 199:1 206:1 229:1 251:1 338:1 342:1 407:1 426:1 470:1 524:1 550:1 579:1 583:1 641:1 672:1 742:1 761:1 780:1 #
0.0090503380054894992656766561367476 24:1 32:1 122:1 160:1 212:1 252:1 260:1 331:1 338:1 400:1 426:1 449:1 469:1 470:1 487:1 524:1 573:1 600:1 616:1 641:1 650:1 757:1 #
0.0030232222479030152785528517966895 19:1 24:1 32:1 173:1 178:1 199:1 209:1 241:1 242:1 265:1 312:1 316:1 343:1 346:1 359:1 361:1 400:1 426:1 442:1 496:1 507:1 525:1 541:1 550:1 552:1 569:1 573:1 575:1 616:1 653:1 680:1 757:1 769:1 791:1 812:1 #
-0.014979585402017169676325281102436 118:1 144:1 145:1 178:1 197:1 327:1 342:1 373:1 402:1 426:1 445:1 485:1 524:1 531:1 550:1 552:1 613:1 680:1 682:1 758:1 #
0.025931309893929145593549634440933 32:1 98:1 137:1 178:1 200:1 283:1 309:1 404:1 426:1 467:1 524:1 550:1 638:1 734:1 812:1 #
0.020870360599892896769080863350609 32:1 98:1 99:1 215:1 229:1 406:1 442:1 467:1 469:1 484:1 524:1 550:1 579:1 643:1 780:1 805:1 812:1 816:1 826:1 #
0.0040339355839353035343419762170925 3:1 8:1 16:1 24:1 32:1 98:1 147:1 162:1 178:1 212:1 242:1 244:1 282:1 284:1 320:1 325:1 327:1 404:1 426:1 442:1 458:1 467:1 550:1 569:1 573:1 589:1 680:1 688:1 721:1 730:1 757:1 772:1 790:1 812:1 815:1 820:1 #
0.014862616966855340949749120227352 32:1 43:1 55:1 98:1 167:1 189:1 372:1 390:1 393:1 442:1 480:1 487:1 550:1 569:1 579:1 743:1 748:1 775:1 791:1 803:1 809:1 810:1 812:1 819:1 #
0.016887251896458350952645588449741 32:1 98:1 173:1 178:1 182:1 338:1 352:1 389:1 400:1 426:1 492:1 505:1 524:1 722:1 741:1 761:1 816:1 #
-0.00912325668280369352081127232168 24:1 32:1 173:1 178:1 199:1 239:1 250:1 259:1 423:1 426:1 478:1 491:1 524:1 531:1 550:1 552:1 578:1 656:1 707:1 708:1 711:1 712:1 727:1 769:1 791:1 803:1 812:1 820:1 821:1 #
-0.044919168450345242638022114078922 203:1 409:1 524:1 550:1 805:1 #
0.0064039754726871499571072554601869 17:1 32:1 33:1 161:1 173:1 176:1 201:1 225:1 227:1 238:1 242:1 304:1 316:1 331:1 338:1 426:1 483:1 526:1 550:1 554:1 565:1 577:1 602:1 616:1 643:1 694:1 757:1 812:1 816:1 #
0.0094929657132374872102742457968816 137:1 184:1 199:1 211:1 218:1 307:1 348:1 372:1 404:1 412:1 417:1 426:1 488:1 534:1 555:1 650:1 718:1 761:1 805:1 812:1 #
-0.0044347143290779360985665036309911 45:1 48:1 55:1 140:1 142:1 147:1 173:1 178:1 201:1 207:1 240:1 314:1 370:1 420:1 442:1 531:1 550:1 569:1 692:1 758:1 793:1 809:1 810:1 812:1 #
-0.0074939645764424359791755492210541 98:1 170:1 275:1 342:1 349:1 650:1 711:1 712:1 798:1 805:1 #
0.0048695136352290046069524187544175 55:1 62:1 89:1 98:1 118:1 137:1 145:1 173:1 199:1 291:1 292:1 306:1 342:1 367:1 372:1 404:1 426:1 450:1 458:1 483:1 487:1 524:1 550:1 551:1 552:1 573:1 575:1 584:1 671:1 681:1 717:1 758:1 805:1 812:1 #
0.0043134935090350413899873416312403 32:1 68:1 94:1 98:1 137:1 173:1 178:1 199:1 242:1 327:1 336:1 376:1 404:1 426:1 442:1 451:1 511:1 550:1 573:1 616:1 631:1 724:1 805:1 812:1 #
0.0053200567755017670601436208244195 32:1 137:1 173:1 178:1 290:1 381:1 404:1 426:1 680:1 757:1 790:1 816:1 #
-0.0037196006249766190576711011317457 24:1 178:1 229:1 251:1 424:1 524:1 559:1 #
0.00013162088178343038860629299335869 24:1 32:1 137:1 196:1 249:1 313:1 316:1 343:1 372:1 404:1 415:1 426:1 457:1 482:1 550:1 593:1 655:1 736:1 758:1 811:1 812:1 #
